<?xml version="1.0"?>
<opencv_storage>
<cascade>
  <stageType>BOOST</stageType>
  <featureType>HAAR</featureType>
  <height>46</height>
  <width>38</width>
  <stageParams>
    <boostType>GAB</boostType>
    <minHitRate>9.9500000476837158e-01</minHitRate>
    <maxFalseAlarm>5.0000000000000000e-01</maxFalseAlarm>
    <weightTrimRate>9.4999998807907104e-01</weightTrimRate>
    <maxDepth>1</maxDepth>
    <maxWeakCount>100</maxWeakCount></stageParams>
  <featureParams>
    <maxCatCount>0</maxCatCount>
    <featSize>1</featSize>
    <mode>BASIC</mode></featureParams>
  <stageNum>3</stageNum>
  <stages>
    <!-- stage 0 -->
    <_>
      <maxWeakCount>3</maxWeakCount>
      <stageThreshold>-1.3364624977111816e+00</stageThreshold>
      <weakClassifiers>
        <_>
          <internalNodes>
            0 -1 2 4.8520959913730621e-02</internalNodes>
          <leafValues>
            -9.6642184257507324e-01 8.4210526943206787e-01</leafValues></_>
        <_>
          <internalNodes>
            0 -1 7 -1.3258787803351879e-03</internalNodes>
          <leafValues>
            5.5828505754470825e-01 -8.8826984167098999e-01</leafValues></_>
        <_>
          <internalNodes>
            0 -1 6 8.7632832583039999e-04</internalNodes>
          <leafValues>
            -9.0002554655075073e-01 5.1822918653488159e-01</leafValues></_></weakClassifiers></_>
    <!-- stage 1 -->
    <_>
      <maxWeakCount>3</maxWeakCount>
      <stageThreshold>-1.4332040548324585e+00</stageThreshold>
      <weakClassifiers>
        <_>
          <internalNodes>
            0 -1 1 1.4426320791244507e-01</internalNodes>
          <leafValues>
            -9.6447229385375977e-01 1.</leafValues></_>
        <_>
          <internalNodes>
            0 -1 0 -9.4554191455245018e-03</internalNodes>
          <leafValues>
            6.5105378627777100e-01 -9.1444373130798340e-01</leafValues></_>
        <_>
          <internalNodes>
            0 -1 4 1.7962628044188023e-03</internalNodes>
          <leafValues>
            -8.9816170930862427e-01 4.4571194052696228e-01</leafValues></_></weakClassifiers></_>
    <!-- stage 2 -->
    <_>
      <maxWeakCount>2</maxWeakCount>
      <stageThreshold>0.</stageThreshold>
      <weakClassifiers>
        <_>
          <internalNodes>
            0 -1 3 -3.2148177269846201e-03</internalNodes>
          <leafValues>
            1. -9.8312234878540039e-01</leafValues></_>
        <_>
          <internalNodes>
            0 -1 5 -2.8818897902965546e-02</internalNodes>
          <leafValues>
            1. -1.</leafValues></_></weakClassifiers></_></stages>
  <features>
    <_>
      <rects>
        <_>
          1 45 36 1 -1.</_>
        <_>
          13 45 12 1 3.</_></rects>
      <tilted>0</tilted></_>
    <_>
      <rects>
        <_>
          4 28 25 18 -1.</_>
        <_>
          4 34 25 6 3.</_></rects>
      <tilted>0</tilted></_>
    <_>
      <rects>
        <_>
          7 29 30 8 -1.</_>
        <_>
          7 33 30 4 2.</_></rects>
      <tilted>0</tilted></_>
    <_>
      <rects>
        <_>
          9 40 11 6 -1.</_>
        <_>
          9 43 11 3 2.</_></rects>
      <tilted>0</tilted></_>
    <_>
      <rects>
        <_>
          13 33 7 9 -1.</_>
        <_>
          13 36 7 3 3.</_></rects>
      <tilted>0</tilted></_>
    <_>
      <rects>
        <_>
          24 1 4 36 -1.</_>
        <_>
          24 19 4 18 2.</_></rects>
      <tilted>0</tilted></_>
    <_>
      <rects>
        <_>
          25 29 1 8 -1.</_>
        <_>
          25 33 1 4 2.</_></rects>
      <tilted>0</tilted></_>
    <_>
      <rects>
        <_>
          28 42 8 2 -1.</_>
        <_>
          28 43 8 1 2.</_></rects>
      <tilted>0</tilted></_></features></cascade>
</opencv_storage>
